Cufon.registerFont(Raphael.registerFont({"w":900,"face":{"font-family":"04b21","font-weight":400,"font-stretch":"normal","units-per-em":"1200","panose-1":"0 0 4 0 0 0 0 0 0 0","ascent":"900","descent":"-300","bbox":"0 -750 900 0","underline-thickness":"20","underline-position":"-123","unicode-range":"U+0020-U+007E"},"glyphs":{" ":{"w":600},"!":{"d":"150,-750r0,450r150,0r0,-450r-150,0xm150,0r150,0r0,-150r-150,0r0,150","w":600},"\"":{"d":"0,-450r150,0r0,-300r-150,0r0,300xm300,-450r150,0r0,-300r-150,0r0,300","w":600},"#":{"d":"150,0r150,0r0,-150r150,0r0,150r150,0r0,-150r150,0r0,-150r-150,0r0,-150r150,0r0,-150r-150,0r0,-150r-150,0r0,150r-150,0r0,-150r-150,0r0,150r-150,0r0,150r150,0r0,150r-150,0r0,150r150,0r0,150xm300,-450r150,0r0,150r-150,0r0,-150"},"$":{"d":"150,-599r0,148r150,0r0,-148r-150,0xm600,-300r150,0r0,150r-150,0r0,150r-600,0r0,-150r300,0r0,-150r-150,0r0,-150r-150,0r0,-150r150,0r0,-150r600,0r0,150r-300,0r0,150r150,0r0,150xm450,-299r0,148r150,0r0,-148r-150,0"},"%":{"d":"150,-750r-150,0r0,150r150,0r0,-150xm450,-450r150,0r0,-150r-150,0r0,150xm600,-750r0,150r150,0r0,-150r-150,0xm150,-150r150,0r0,-150r-150,0r0,150xm300,-300r150,0r0,-150r-150,0r0,150xm0,0r150,0r0,-150r-150,0r0,150xm600,0r150,0r0,-150r-150,0r0,150"},"&":{"d":"151,-599r0,148r299,0r0,-148r-299,0xm151,-299r0,148r299,0r0,-148r-299,0xm0,-150r0,-150r150,0r0,-150r-150,0r0,-150r150,0r0,-150r300,0r0,150r150,0r0,150r-150,0r0,150r300,0r0,-150r150,0r0,150r-150,0r0,150r150,0r0,150r-150,0r0,-150r-150,0r0,150r-450,0r0,-150r-150,0","w":1050},"'":{"d":"150,-750r-150,0r0,300r150,0r0,-300","w":300},"(":{"d":"150,-600r150,0r0,-150r-150,0r0,150xm0,-150r150,0r0,-450r-150,0r0,450xm300,0r0,-150r-150,0r0,150r150,0","w":450},")":{"d":"0,-750r0,150r150,0r0,-150r-150,0xm150,-150r150,0r0,-450r-150,0r0,450xm0,0r150,0r0,-150r-150,0r0,150","w":450},"*":{"d":"150,-600r0,-150r-150,0r0,150r150,0xm300,-450r0,-150r-150,0r0,150r150,0xm450,-600r0,-150r-150,0r0,150r150,0xm150,-300r0,-150r-150,0r0,150r150,0xm450,-300r0,-150r-150,0r0,150r150,0","w":600},"+":{"d":"750,-450r-300,0r0,-300r-150,0r0,300r-300,0r0,150r300,0r0,300r150,0r0,-300r300,0r0,-150"},",":{"d":"0,0r150,0r0,-300r-150,0r0,300","w":300},"-":{"d":"750,-300r0,-150r-750,0r0,150r750,0"},"\u2010":{"d":"750,-300r0,-150r-750,0r0,150r750,0"},".":{"d":"0,0r150,0r0,-150r-150,0r0,150","w":300},"\/":{"d":"450,-450r150,0r0,-150r-150,0r0,150xm750,-750r-150,0r0,150r150,0r0,-150xm150,-150r150,0r0,-150r-150,0r0,150xm300,-300r150,0r0,-150r-150,0r0,150xm0,0r150,0r0,-150r-150,0r0,150"},"0":{"d":"600,-151r0,-448r-450,0r0,448r450,0xm150,-150r-150,0r0,-450r150,0r0,-150r450,0r0,150r150,0r0,450r-150,0r0,150r-450,0r0,-150"},"1":{"d":"150,0r150,0r0,-750r-150,0r0,150r-150,0r0,150r150,0r0,450","w":450},"2":{"d":"0,-750r0,150r600,0r0,-150r-600,0xm750,-600r-150,0r0,150r150,0r0,-150xm600,-300r0,-150r-450,0r0,150r450,0xm750,-150r-600,0r0,-150r-150,0r0,300r750,0r0,-150"},"3":{"d":"0,-750r0,150r600,0r0,-150r-600,0xm750,-600r-150,0r0,150r150,0r0,-150xm150,-450r0,150r450,0r0,-150r-450,0xm750,-300r-150,0r0,150r150,0r0,-150xm0,-150r0,150r600,0r0,-150r-600,0"},"4":{"d":"300,-599r0,150r-150,0r0,149r300,0r0,-299r-150,0xm450,-150r-450,0r0,-300r150,0r0,-150r150,0r0,-150r300,0r0,450r150,0r0,150r-150,0r0,150r-150,0r0,-150"},"5":{"d":"150,-450r0,-150r600,0r0,-150r-750,0r0,450r600,0r0,-150r-450,0xm750,-300r-150,0r0,150r150,0r0,-150xm600,0r0,-150r-600,0r0,150r600,0"},"6":{"d":"600,-151r0,-148r-450,0r0,148r450,0xm150,-150r-150,0r0,-450r150,0r0,-150r450,0r0,150r-450,0r0,150r450,0r0,150r150,0r0,150r-150,0r0,150r-450,0r0,-150"},"7":{"d":"600,-600r0,150r150,0r0,-300r-750,0r0,150r600,0xm450,-300r150,0r0,-150r-150,0r0,150xm300,-150r150,0r0,-150r-150,0r0,150xm150,0r150,0r0,-150r-150,0r0,150"},"8":{"d":"600,-451r0,-148r-450,0r0,148r450,0xm600,-151r0,-148r-450,0r0,148r450,0xm150,-150r-150,0r0,-150r150,0r0,-150r-150,0r0,-150r150,0r0,-150r450,0r0,150r150,0r0,150r-150,0r0,150r150,0r0,150r-150,0r0,150r-450,0r0,-150"},"9":{"d":"600,-599r-450,0r0,148r450,0r0,-148xm150,-150r450,0r0,-150r-450,0r0,-150r-150,0r0,-150r150,0r0,-150r450,0r0,150r150,0r0,450r-150,0r0,150r-450,0r0,-150"},":":{"d":"150,-450r0,-150r-150,0r0,150r150,0xm150,-150r0,-150r-150,0r0,150r150,0","w":300},";":{"d":"150,-600r-150,0r0,150r150,0r0,-150xm150,-300r-150,0r0,300r150,0r0,-300","w":300},"<":{"d":"150,-450r150,0r0,-150r-150,0r0,150xm300,-600r150,0r0,-150r-150,0r0,150xm0,-300r150,0r0,-150r-150,0r0,150xm300,-150r0,-150r-150,0r0,150r150,0xm450,0r0,-150r-150,0r0,150r150,0","w":600},"=":{"d":"750,-450r0,-150r-750,0r0,150r750,0xm750,-150r0,-150r-750,0r0,150r750,0"},">":{"d":"0,-750r0,150r150,0r0,-150r-150,0xm150,-600r0,150r150,0r0,-150r-150,0xm150,-150r150,0r0,-150r-150,0r0,150xm300,-300r150,0r0,-150r-150,0r0,150xm0,0r150,0r0,-150r-150,0r0,150","w":600},"?":{"d":"0,-750r0,150r450,0r0,-150r-450,0xm450,-450r150,0r0,-150r-150,0r0,150xm150,-450r0,150r300,0r0,-150r-300,0xm150,0r150,0r0,-150r-150,0r0,150","w":750},"@":{"d":"600,-150r0,-150r-150,0r0,150r150,0xm150,-151r150,0r0,-299r300,0r0,-149r-450,0r0,448xm150,-600r0,-150r450,0r0,150r150,0r0,600r-600,0r0,-150r-150,0r0,-450r150,0"},"A":{"d":"600,-599r-450,0r0,149r450,0r0,-149xm150,-300r0,300r-150,0r0,-600r150,0r0,-150r450,0r0,150r150,0r0,600r-150,0r0,-300r-450,0"},"B":{"d":"600,-451r0,-148r-450,0r0,148r450,0xm600,-151r0,-148r-450,0r0,148r450,0xm600,0r-600,0r0,-750r600,0r0,150r150,0r0,150r-150,0r0,150r150,0r0,150r-150,0r0,150"},"C":{"d":"600,-600r0,-150r-450,0r0,150r450,0xm750,-450r0,-150r-150,0r0,150r150,0xm150,-600r-150,0r0,450r150,0r0,-450xm750,-300r-150,0r0,150r150,0r0,-150xm600,0r0,-150r-450,0r0,150r450,0"},"D":{"d":"600,-600r150,0r0,450r-150,0r0,150r-600,0r0,-750r600,0r0,150xm150,-151r450,0r0,-448r-450,0r0,448"},"E":{"d":"750,-600r0,-150r-600,0r0,150r600,0xm150,-300r600,0r0,-150r-600,0r0,-150r-150,0r0,450r150,0r0,-150xm750,0r0,-150r-600,0r0,150r600,0"},"F":{"d":"750,-600r0,-150r-600,0r0,150r600,0xm150,-300r600,0r0,-150r-600,0r0,-150r-150,0r0,600r150,0r0,-300"},"G":{"d":"750,-600r0,-150r-600,0r0,150r600,0xm150,-600r-150,0r0,450r150,0r0,-450xm750,0r0,-450r-450,0r0,150r300,0r0,150r-450,0r0,150r600,0"},"H":{"d":"600,-750r0,300r-450,0r0,-300r-150,0r0,750r150,0r0,-300r450,0r0,300r150,0r0,-750r-150,0"},"I":{"d":"300,-600r150,0r0,-150r-450,0r0,150r150,0r0,450r-150,0r0,150r450,0r0,-150r-150,0r0,-450","w":600},"J":{"d":"150,-300r-150,0r0,150r150,0r0,-150xm750,-750r-450,0r0,150r300,0r0,450r150,0r0,-600xm600,0r0,-150r-450,0r0,150r450,0"},"K":{"d":"600,-600r-150,0r0,150r150,0r0,-150xm750,-750r-150,0r0,150r150,0r0,-150xm150,-450r0,-300r-150,0r0,750r150,0r0,-300r300,0r0,-150r-300,0xm600,-150r0,-150r-150,0r0,150r150,0xm750,0r0,-150r-150,0r0,150r150,0"},"L":{"d":"150,-150r0,-600r-150,0r0,750r750,0r0,-150r-600,0"},"M":{"d":"150,-600r0,-150r-150,0r0,750r150,0r0,-450r150,0r0,-150r-150,0xm600,-750r0,150r-150,0r0,150r150,0r0,450r150,0r0,-750r-150,0xm300,-300r150,0r0,-150r-150,0r0,150"},"N":{"d":"150,-600r0,-150r-150,0r0,750r150,0r0,-450r150,0r0,-150r-150,0xm600,-750r0,450r-150,0r0,150r150,0r0,150r150,0r0,-750r-150,0xm300,-450r0,150r150,0r0,-150r-150,0"},"O":{"d":"600,-151r0,-448r-450,0r0,448r450,0xm150,-150r-150,0r0,-450r150,0r0,-150r450,0r0,150r150,0r0,450r-150,0r0,150r-450,0r0,-150"},"P":{"d":"600,-451r0,-148r-450,0r0,148r450,0xm150,-300r0,300r-150,0r0,-750r600,0r0,150r150,0r0,150r-150,0r0,150r-450,0"},"Q":{"d":"150,-150r-150,0r0,-450r150,0r0,-150r450,0r0,150r150,0r0,600r-600,0r0,-150xm600,-300r0,-299r-450,0r0,448r300,0r0,-149r150,0"},"R":{"d":"600,-451r0,-148r-450,0r0,148r450,0xm750,0r-150,0r0,-150r-150,0r0,-150r-300,0r0,300r-150,0r0,-750r600,0r0,150r150,0r0,150r-150,0r0,300r150,0r0,150"},"S":{"d":"0,-600r0,150r150,0r0,-150r-150,0xm750,-600r0,-150r-600,0r0,150r600,0xm150,-450r0,150r450,0r0,-150r-450,0xm750,-300r-150,0r0,150r150,0r0,-150xm600,0r0,-150r-600,0r0,150r600,0"},"T":{"d":"0,-750r0,150r300,0r0,600r150,0r0,-600r300,0r0,-150r-750,0"},"U":{"d":"150,-750r-150,0r0,600r150,0r0,-600xm750,-750r-150,0r0,600r150,0r0,-600xm600,0r0,-150r-450,0r0,150r450,0"},"V":{"d":"150,-750r-150,0r0,450r150,0r0,-450xm600,-750r0,450r150,0r0,-450r-150,0xm150,-300r0,150r150,0r0,-150r-150,0xm450,-150r150,0r0,-150r-150,0r0,150xm300,0r150,0r0,-150r-150,0r0,150"},"W":{"d":"600,-750r0,600r150,0r0,-600r-150,0xm150,-750r-150,0r0,600r150,0r0,-600xm450,-750r-150,0r0,600r150,0r0,-600xm150,0r150,0r0,-150r-150,0r0,150xm450,0r150,0r0,-150r-150,0r0,150"},"X":{"d":"0,-750r0,150r150,0r0,-150r-150,0xm150,-600r0,150r150,0r0,-150r-150,0xm600,-600r-150,0r0,150r150,0r0,-150xm750,-750r-150,0r0,150r150,0r0,-150xm150,-150r150,0r0,-150r-150,0r0,150xm300,-450r0,150r150,0r0,-150r-150,0xm600,-150r0,-150r-150,0r0,150r150,0xm0,0r150,0r0,-150r-150,0r0,150xm750,0r0,-150r-150,0r0,150r150,0"},"Y":{"d":"150,-750r-150,0r0,300r150,0r0,-300xm600,-750r0,300r150,0r0,-300r-150,0xm150,-450r0,150r150,0r0,-150r-150,0xm450,-300r150,0r0,-150r-150,0r0,150xm300,0r150,0r0,-300r-150,0r0,300"},"Z":{"d":"600,-600r150,0r0,-150r-750,0r0,150r450,0r0,150r150,0r0,-150xm150,-300r0,150r-150,0r0,150r750,0r0,-150r-450,0r0,-150r-150,0xm450,-450r-150,0r0,150r150,0r0,-150"},"[":{"d":"0,-750r0,750r300,0r0,-150r-150,0r0,-450r150,0r0,-150r-300,0","w":450},"\\":{"d":"0,-750r0,150r150,0r0,-150r-150,0xm150,-600r0,150r150,0r0,-150r-150,0xm300,-450r0,150r150,0r0,-150r-150,0xm450,-300r0,150r150,0r0,-150r-150,0xm750,0r0,-150r-150,0r0,150r150,0"},"]":{"d":"0,-750r0,150r150,0r0,450r-150,0r0,150r300,0r0,-750r-300,0","w":450},"^":{"d":"300,-750r-150,0r0,150r150,0r0,-150xm150,-600r-150,0r0,150r150,0r0,-150xm450,-450r0,-150r-150,0r0,150r150,0","w":600},"_":{"d":"750,0r0,-150r-750,0r0,150r750,0"},"`":{"d":"150,-750r-150,0r0,150r150,0r0,-150xm300,-450r0,-150r-150,0r0,150r150,0","w":450},"a":{"d":"150,0r150,0r0,-150r150,0r0,150r150,0r0,-150r150,0r0,-450r-150,0r0,-150r-150,0r0,150r-150,0r0,-150r-150,0r0,150r-150,0r0,450r150,0r0,150xm600,-450r0,150r-150,0r0,-150r150,0xm150,-450r150,0r0,150r-150,0r0,-150"},"b":{"d":"300,0r0,-150r150,0r0,150r300,0r0,-150r-150,0r0,-150r150,0r0,-450r-750,0r0,450r150,0r0,150r-150,0r0,150r300,0xm600,-600r0,150r-150,0r0,-150r150,0xm150,-600r150,0r0,150r-150,0r0,-150"},"c":{"d":"150,-599r0,149r150,0r0,-149r-150,0xm600,-599r-150,0r0,149r150,0r0,-149xm450,0r0,-150r150,0r0,-150r-450,0r0,150r150,0r0,150r-150,0r0,-150r-150,0r0,-450r150,0r0,-150r450,0r0,150r150,0r0,450r-150,0r0,150r-150,0"},"d":{"d":"150,0r150,0r0,-150r150,0r0,150r150,0r0,-150r150,0r0,-450r-150,0r0,-150r-450,0r0,150r-150,0r0,450r150,0r0,150xm600,-300r-150,0r0,-150r150,0r0,150xm150,-450r150,0r0,150r-150,0r0,-150"},"e":{"d":"150,-599r0,149r150,0r0,-149r-150,0xm600,-599r-150,0r0,149r150,0r0,-149xm150,-150r0,150r-150,0r0,-600r150,0r0,-150r450,0r0,150r150,0r0,600r-150,0r0,-150r-150,0r0,150r-150,0r0,-150r-150,0"},"f":{"d":"300,-300r150,0r0,150r150,0r0,-150r150,0r0,-450r-750,0r0,450r150,0r0,150r150,0r0,-150xm600,-600r0,150r-150,0r0,-150r150,0xm150,-600r150,0r0,150r-150,0r0,-150xm150,-150r-150,0r0,150r150,0r0,-150xm750,0r0,-150r-150,0r0,150r150,0"},"g":{"d":"150,-449r0,148r150,0r0,-148r-150,0xm600,-301r0,-148r-150,0r0,148r150,0xm300,0r-300,0r0,-150r150,0r0,-150r-150,0r0,-150r150,0r0,-150r-150,0r0,-150r300,0r0,150r150,0r0,-150r300,0r0,150r-150,0r0,150r150,0r0,150r-150,0r0,150r150,0r0,150r-300,0r0,-150r-150,0r0,150"},"h":{"d":"150,-599r0,149r150,0r0,-149r-150,0xm600,-599r-150,0r0,149r150,0r0,-149xm750,0r-150,0r0,-150r-150,0r0,150r-150,0r0,-150r-150,0r0,150r-150,0r0,-150r150,0r0,-150r-150,0r0,-300r150,0r0,-150r450,0r0,150r150,0r0,300r-150,0r0,150r150,0r0,150"},"i":{"d":"150,-301r150,0r0,-149r-150,0r0,149xm600,-301r0,-149r-150,0r0,149r150,0xm300,0r-300,0r0,-150r150,0r0,-150r-150,0r0,-450r150,0r0,150r150,0r0,-150r150,0r0,150r150,0r0,-150r150,0r0,450r-150,0r0,150r150,0r0,150r-300,0r0,-150r-150,0r0,150"},"j":{"d":"150,-150r-150,0r0,150r150,0r0,-150xm300,0r150,0r0,-150r150,0r0,-150r150,0r0,-150r-150,0r0,-150r-150,0r0,-150r-150,0r0,150r-150,0r0,150r-150,0r0,150r150,0r0,150r150,0r0,150xm750,0r0,-150r-150,0r0,150r150,0"},"k":{"d":"300,-300r0,150r-150,0r0,150r450,0r0,-150r-150,0r0,-150r300,0r0,-300r-300,0r0,-150r-150,0r0,150r-300,0r0,300r300,0"},"l":{"d":"300,-300r0,150r150,0r0,-150r300,0r0,-150r-150,0r0,-150r-150,0r0,-150r-150,0r0,150r-150,0r0,150r-150,0r0,150r300,0xm150,0r150,0r0,-150r-150,0r0,150xm600,0r0,-150r-150,0r0,150r150,0"},"m":{"d":"150,-150r150,0r0,150r150,0r0,-150r150,0r0,150r150,0r0,-450r-150,0r0,-150r-150,0r0,-150r-150,0r0,150r-150,0r0,150r-150,0r0,450r150,0r0,-150"},"n":{"d":"150,0r150,0r0,-150r150,0r0,150r150,0r0,-150r150,0r0,-300r-150,0r0,-150r-150,0r0,-150r-150,0r0,150r-150,0r0,150r-150,0r0,300r150,0r0,150"},"o":{"d":"150,-750r0,150r150,0r0,-150r-150,0xm600,-750r-150,0r0,150r150,0r0,-150xm750,0r0,-300r-150,0r0,-150r-150,0r0,-150r-150,0r0,150r-150,0r0,150r-150,0r0,300r750,0"},"p":{"d":"150,-299r0,149r150,0r0,-149r-150,0xm600,-299r-150,0r0,149r150,0r0,-149xm750,0r-750,0r0,-300r150,0r0,-300r150,0r0,-150r150,0r0,150r150,0r0,300r150,0r0,300"},"q":{"d":"150,-150r-150,0r0,150r150,0r0,-150xm300,0r150,0r0,-150r150,0r0,-150r150,0r0,-450r-150,0r0,150r-150,0r0,-150r-150,0r0,150r-150,0r0,-150r-150,0r0,450r150,0r0,150r150,0r0,150xm750,0r0,-150r-150,0r0,150r150,0"},"r":{"d":"150,-750r0,150r150,0r0,-150r-150,0xm600,-750r-150,0r0,150r150,0r0,-150xm150,0r150,0r0,-150r150,0r0,150r150,0r0,-150r150,0r0,-300r-300,0r0,-150r-150,0r0,150r-300,0r0,300r150,0r0,150"},"s":{"d":"600,-151r0,-448r-450,0r0,448r450,0xm150,-150r-150,0r0,-450r150,0r0,-150r450,0r0,150r150,0r0,450r-150,0r0,150r-450,0r0,-150"},"t":{"d":"0,-750r0,150r150,0r0,-150r-150,0xm150,-600r0,150r150,0r0,-150r-150,0xm600,-600r-150,0r0,150r150,0r0,-150xm750,-750r-150,0r0,150r150,0r0,-150xm300,-300r-150,0r0,150r150,0r0,-150xm450,-450r-150,0r0,150r150,0r0,-150xm600,-150r0,-150r-150,0r0,150r150,0xm150,-150r-150,0r0,150r150,0r0,-150xm750,0r0,-150r-150,0r0,150r150,0"},"u":{"d":"750,0r0,-750r-750,0r0,750r750,0xm150,-600r450,0r0,450r-450,0r0,-450"},"v":{"d":"600,-299r-150,0r0,-300r-150,0r0,300r-150,0r0,149r450,0r0,-149xm750,0r-750,0r0,-300r150,0r0,-300r150,0r0,-150r150,0r0,150r150,0r0,300r150,0r0,300"},"w":{"d":"300,-300r0,300r150,0r0,-150r150,0r0,-150r150,0r0,-150r-150,0r0,-150r-150,0r0,-150r-150,0r0,300r-300,0r0,150r300,0"},"x":{"d":"300,-750r0,150r150,0r0,-150r-150,0xm450,-300r0,150r150,0r0,-150r150,0r0,-150r-150,0r0,-150r-150,0r0,150r-450,0r0,150r450,0xm300,0r150,0r0,-150r-150,0r0,150"},"y":{"d":"300,-750r0,750r150,0r0,-150r150,0r0,-150r150,0r0,-150r-150,0r0,-150r-150,0r0,-150r-150,0xm150,-750r-150,0r0,750r150,0r0,-750"},"z":{"d":"150,0r450,0r0,-150r150,0r0,-150r-150,0r0,-150r150,0r0,-150r-150,0r0,-150r-450,0r0,150r-150,0r0,450r150,0r0,150xm450,-600r0,150r-150,0r0,-150r150,0"},"{":{"d":"300,-600r150,0r0,-150r-300,0r0,300r150,0r0,-150xm150,-450r-150,0r0,150r150,0r0,-150xm150,0r300,0r0,-150r-150,0r0,-150r-150,0r0,300","w":600},"|":{"d":"0,0r150,0r0,-750r-150,0r0,750","w":300},"}":{"d":"300,-750r-300,0r0,150r150,0r0,150r150,0r0,-300xm150,-150r-150,0r0,150r300,0r0,-300r-150,0r0,150xm300,-300r150,0r0,-150r-150,0r0,150","w":600},"~":{"d":"150,-750r0,150r150,0r0,-150r-150,0xm0,-450r150,0r0,-150r-150,0r0,150xm450,-600r150,0r0,-150r-150,0r0,150xm300,-450r150,0r0,-150r-150,0r0,150","w":750},"\u00a0":{"w":600}}}));